-2.4203606558259425,-0.9529182534933984,-2.7600668829947,0.5233061945683222,-2.068227120626485,-2.672952749505858,-1.932833410430507,-7.762582318495031,-4.159323945068713,-2.521790444806628,-2.0693361201186784,0.5854207767661249,-2.5089243325614197,-4.267046301956519,-2.5403531137230217,-2.0932911791204933,-2.2960394267292954,-2.4643849477810353,-2.1684055976980434,-2.3689794813072127,-1.533267480308419,-2.389456162621053,-3.2164452578835756,-4.1664228326029,-3.7923683805254735,-2.652408541347978,-1.6845775973925166,-3.281380013706517,-2.4400684403253967,-3.7462315034813076,-4.3084107325664975,-2.268022377650466,-2.970392147218383,-3.4814289692512883,-0.43792324487123124,-1.9789600370396545,0.017368619870315904,3.263692324782811,-3.218286658120462,-2.8422622779281914,-1.9960517364183272,-2.9318529757824274,-2.521108263477453,0.04509387006642923,-3.337290682678322,-2.9444857246640224,-3.360425644023623,-3.8270014342433223,-3.1650415255161493,-3.6558128008335515,-3.535486505300146,-0.8833887453591477,1.412270660615841,-3.4527429971774564,0.48758259930103803,4.902947791783351,-2.5699445283107996,3.6864774070822217,3.4189164850114286,-2.1855196576216227,-0.27936699316503405,-3.0748591808733976,-8.960007176556324,-2.683826287448513,-4.388744142020827,-3.8879300781856174,-1.2270186946496033,-2.051082810282012,-2.832449079193389,-0.7398585934875899,-2.506438971994434,-3.1577041504804426,-2.801285618349345,-1.8505057067380524,-2.020474115977909,-1.8356487037420677,-2.4941939088132337,-2.1985382925254298,0.17167578965370917,-3.070403597571469,-1.1966531977278616,-2.4026252850688206,-1.7444124145009243,-2.2301563034298,-1.7769346154819847,0.7057187712384279,-0.43481812992135915,-3.3021168737429916,-0.13073796455344616,-2.246032137075885,-3.0393020011531897,-4.362097258277314,-2.0845235922466476,-1.8235259830363069,-3.130360760671187,-3.3176456033646056,-1.631218755795693,-3.4364424555605884,-2.985846960843198,0.9928917759969548
5.3213214522004355,5.712576663888854,4.966862222166731,6.0492847747143115,5.256061013640139,5.542572386718605,5.262768363707899,4.1318567896546945,4.785439165132519,5.161048182383532,5.011447280217033,6.467200129411179,4.898674606575292,4.512168683224539,4.7208963360361285,5.0662949090370555,5.632877899869245,5.256537845652636,5.10410994876052,5.104808222431891,5.81782203264235,5.174375717041805,4.930609512191538,4.771582377781823,5.100521470388203,4.916424552173799,5.706747462611714,4.7409361577784965,4.923912209356304,4.7794893192970225,4.494731694598769,5.099330575209704,4.987678526919868,5.149101585117018,5.516387850250269,5.035455319975195,6.013596730156867,7.05686581353152,5.039087256397775,4.807437545768503,5.2737725476101955,4.952673455489577,5.340724168746567,6.294725290340775,4.778792618422134,5.21042055980987,5.089343589051147,5.117897935380497,4.838603234808037,4.39333108982482,4.852163033359286,6.2245194447959875,6.627697142663408,4.912295184321786,6.888444046893042,7.841291895779122,4.831276913904119,7.49668689168062,7.365546991347877,5.237207820470919,5.797021808479904,4.759607274151976,3.5093280602533676,4.900194976119898,4.854366369097069,4.9508916250530195,5.582506964820385,5.234742082695312,4.950192788335834,5.4951997764148075,4.926620551891569,5.0994982955793935,4.961128835083024,5.083681582020159,5.1134626442604665,5.039893107917732,5.038912914919172,5.046886794154567,5.851696756296401,5.425298679309532,5.3902366684259,5.185509962857807,5.098159993317365,5.022177321195592,5.188536804332428,6.493902053866559,5.705261366487031,4.747836305566779,5.951473199077314,5.021791661155006,4.880980407628994,4.554123111493909,5.788297828761228,5.028459879991449,5.08006185841423,4.86876255846369,5.188170674543394,5.060057904296239,5.029801696290486,6.1052937514115255
0.0005287813517481597,0.0247964310905134,0.06732538058258285,2.7356989309425302e-05,0.0001941755028465657,0.004714705440981015,0.004804134406823689,0.006235008852876898,0.001032410854964815,0.00014189664356352338,0.03228822856198431,0.0001109445716397558,0.0007098559764075803,0.0014816524312409104,0.042195469485022855,0.002505314778738404,0.00032217989272087554,0.0016025195100975386,0.0003924073995548022,0.019585329313563046,0.008512467910021563,0.00015715461918966615,0.0021115184266501663,0.0021519186923009363,0.0026338346364864454,0.011262583210723234,0.024151376288736447,0.0011304614202342902,0.003169108010508743,0.006459383460355336,0.003950112023865724,0.0004935200155071813,0.006631332089122949,0.0034090912669343964,0.0009702426638802633,0.0013598844665410012,0.005854477667461149,9.903314816742974e-05,0.0018080040917517904,0.0003337571067533776,3.409488653579036e-05,0.006861087047896225,0.0009006259733068485,5.554791525025597e-05,0.013838904884331354,0.00011554310416900517,6.602759733257359e-05,0.0185564115361351,7.351278989754884e-05,9.26268919106031e-05,0.0059787138633365,0.008764416047145328,0.003407436620583717,0.00042189132650288785,2.6274974743614635e-06,6.067067728636709e-08,6.094243817853901e-07,0.05672792928480334,0.034928018883490695,0.000883795481886615,0.001538916707910489,0.00011735914318329967,3.1713414797070818e-06,0.00036012470747590156,4.736080538592251e-06,0.025473213470950117,0.009444789737685099,3.497684342095103e-05,2.6332073672768144e-06,0.031468096820088484,3.484747811625382e-05,0.002713156468290523,0.0005273744795135173,0.00010852031376379074,0.0009961702272059919,0.011867664603081068,0.00015863546917229353,0.018514733547292623,0.0303414250391686,0.004865484522220758,0.005779567020209556,0.00928019351173626,9.780971383129938e-05,6.103260400895373e-05,0.0018191100310023859,0.010829469835134784,0.0028282991460095884,0.0012167265396522183,0.003252752959542138,6.177673532201127e-05,3.798623468624503e-05,0.0024574273981993605,0.0026454247668863395,0.0017300464184109672,5.734658759159614e-07,6.171957584634028e-06,0.0008074589252952696,0.0018023917410121336,0.0016713738524481475,0.05426232708603368
