-5.842896520902402,-3.6597512617605448,-4.639414845256599,-3.8923056734440715,-4.899265150968614,-4.802432829468507,-5.084092567909933,-5.11588733633528,-4.555901980138957,-3.5689306491167145,-3.007626412384576,-5.644886580497296,-3.8005772212547795,-3.2914057161206913,-3.290407997160168,-4.686146400869789,-5.899808945615767,-6.273181053273309,-6.016789731282377,-3.057032280135818,-3.4929655788813583,-5.915229432895526,-6.324631314937501,-4.244209131217476,-4.567947911711444,-2.8998732453693536,-2.584219077383648,-2.981647718135055,-3.468912773678388,-3.6914335746798415,-4.457254482541482,-3.9122103898028966,-4.481063871884782,-3.5286160694884425,-3.3147256274136523,-3.3624843249926424,-5.843368971376757,-4.395035250794662,-5.812502420373706,-2.545935861479798,-3.5721853807270025,-11.341184774001364,-4.771295989528175,-4.702770097724016,-4.716448598540813,-2.4291413839118556,-9.853784813432402,-3.0947447618714006,-3.1459953703538424,-2.998682744570732,-3.9243096125086576,-3.0292232032313136,-3.1777291977475053,-2.947901631981532,-3.4137099882832502,-4.098041800082697,-4.558084092889779,-4.02591818590723,-5.55681581321472,-7.644669855283037,-3.374530599345708,-1.9759937943982517,-4.657535077830627,-1.9245119527344339,-3.8873356059981066,-4.304485528879022,-3.023595431384079,-4.302859737012261,-3.5529872255898303,-2.89070148555335,-5.956821009788163,-3.0034862964074716,-4.381465573263143,-3.4586658561268306,-3.976759499927169,-2.9663607270010464,-4.46272811861935,-3.6004581393939405,-3.48574823353245,-4.155055003546241,-4.8729129788522005,-4.534020731586876,-3.735188353012372,-3.4022924157138688,-2.6386991006682488,-8.042829846914682,-2.7161196949707613,-4.02037599674273,-4.409043739794774,-3.5207953596424,-3.978520966233544,-4.2419503803906755,-2.9346682827613533,-4.182103816979285,-3.63785705313017,-5.273329930856085,-7.774514618143613,-2.77402483983529,-6.101486596071229,-4.229296290831585
4.556447614086354,4.9564426992382264,4.589458084222972,4.7737449259239275,4.87319297850279,4.549405923462125,4.689208727511633,4.817989892186886,5.055328288381325,4.981126023740672,4.944273973597988,4.6488270611688165,4.942067549972601,4.983573536347571,4.855037633549521,4.8030518945528575,4.701054913826478,4.616206313515199,4.700864382796972,4.893160405414497,4.977896920525046,4.74842849680387,4.436233902545086,4.792942848399558,5.052201725127573,5.013019226478661,5.009609405976377,5.150930186031241,5.023924615329583,4.810028975418451,5.2408682478674935,5.182629790815206,4.732153010067236,5.329230221710008,5.3728157518116815,5.24111066658189,4.491120081298779,5.032323465320637,4.589892515732387,5.050714012657369,5.030538634465029,3.605785054727605,4.798502228715308,4.637787608250618,5.349831241501905,5.123472011837207,4.123519873955208,4.949847751381564,4.939652296376404,4.80318089325733,4.698114674823289,4.993234841555708,5.037033723469285,5.008885361775745,5.093955815842872,4.863680078650425,4.719715963029193,4.677790258383653,4.84996881247893,4.622103784144419,5.03734264278644,5.070703646326495,4.8575991552076925,5.1112720666099785,4.863730522975005,5.0028981728753825,4.979295990705462,4.826835499959984,5.080081632639875,4.96588515614329,4.499855626335765,4.922200863182402,4.911122459123271,4.955005029148329,4.703626981770248,5.054066694678763,4.8308047057089984,4.930718453307174,4.92573083839468,4.743185902946704,4.7379757652256504,4.681095757297093,5.017094901892768,4.8983513829866405,5.021323780172081,4.584866392643848,4.895995355040987,4.996839326850457,5.000053597022367,4.874442911623041,4.70027070265165,5.023289387111383,5.008135787350691,5.3696171052390484,4.953683035623322,5.069373532926881,4.3963099198907685,5.057893735599015,4.526071118588108,4.833663735077929
0.055066210856964073,0.04057646532253511,0.14083807451360217,0.16830229824090354,0.10852474866047492,0.05535159559148144,0.11310225006732588,0.23240359895489,0.026563871812029342,0.02491344708072793,0.017644391420939633,0.04217847357620237,0.003686881222367757,0.20949209325812063,0.01183077286258139,0.015562677412731365,0.0406168269347027,0.13464165666273462,0.0355476761605527,0.022684302661047883,0.12144724456000465,0.35518405902101796,0.06198388011217375,0.009180914545164311,0.14635268870797838,0.06178750286546425,0.08443585073732875,0.00516853328768088,0.04762843569108434,0.12329527452638919,0.09098663337141716,0.024279090477983094,0.21791620088050298,0.07950509302094515,0.16354965381716552,0.06626552143903247,0.04734133470499981,0.03544773813044271,0.13597976386856286,0.030891574309288426,0.11611733704050686,0.08441466709304893,0.033405828849311814,0.09031368424631395,0.14721127652733879,0.048299975389651896,0.36753516968593347,0.012586996246995854,0.07942702700525427,0.1873929438547255,0.0812506139277622,0.022524752331927498,0.36461155405287726,0.011030014155156937,0.05802559831723874,0.015049141054035837,0.0681185817438877,0.020797850073216377,0.26652468506488236,0.0768410379780563,0.015501871672056165,0.11935054521396085,0.015560642584798107,0.0577080261595045,0.26776237686234156,0.01204009569726054,0.020567360742261575,0.008082899350778352,0.045326148702713454,0.021046208035746083,0.1914310576256352,0.02365148730924241,0.05176557354979145,0.06502797251202645,0.005950087637674224,0.0019746104292396698,0.0801878264639574,0.026263376831859954,0.06160655577236825,0.043088868881187486,0.05895253409700431,0.1334791522070876,0.1938076368701003,0.07091548220577407,0.012214377171997852,0.3273303500413145,0.2622261842857569,0.028964778855872446,0.5307237429704864,0.08421785018863451,0.02698903802627438,0.04553729258185795,0.028238426065994707,0.10171018802707872,0.2523652755649843,0.01757698256520537,0.023807360340889292,0.01955621166505333,0.20872623914392974,0.027350916300518044
