-1.6178116660317472,-2.9606730521848847,-1.8614257702120656,-3.0401539318720188,0.1303325497534218,-2.724487759356552,-3.6227250840552774,-1.058215602229362,-2.251881263112089,-2.4346197078617826,-1.9226946541065781,-2.486590789454328,-1.66364996752024,-3.12748222575625,-2.605708807759099,-2.50557959892021,-2.339207440065801,-2.302339108961885,-2.3201252968557817,0.23650962956963245,-2.1308977004462544,-4.217380045167985,-5.325271923143569,-4.408317832280539,-2.3950593743061956,-1.8702953148360495,-2.355955198295955,-3.565916710571259,-1.0135798745631348,-3.5206616534613624,-0.9935069209270496,-1.6701159897214506,0.9350530225887692,-3.1345466686710215,-3.3686563805620944,-1.7994203503540716,-2.666378485466276,-2.0231628339515937,-1.7860944211766319,-2.744171182197227,-0.06568392575471937,-2.5990725936475916,-2.862753902695443,-3.417790214597789,-2.572708257573647,-4.359780957293102,-2.0497061520432682,-3.703971824968994,-2.5790888663769804,-3.1848913813067448,-2.9915249687708787,-3.38802170152579,-2.113261648408033,-2.66019876194227,-3.917261581299865,-3.6209534392721388,2.2992878097527214,-2.601875930201766,-2.5606130303582986,-1.853644428136512,-2.768663692139606,4.339354738073144,-3.5082500704200186,-4.20075366938439,-2.782823326648825,-2.405240140659043,-1.5191118522823848,-2.0757787116185002,-0.3738071978589215,-3.102183884923667,-5.513405103264241,-3.5268425280287525,-3.3634580065124586,-6.258254277221193,-4.821012986205332,-2.176768424767674,-1.1352608084735734,0.16858872133610514,-3.0857075682453114,-2.3925563723032073,-3.0054974784902635,-4.277555102603691,-2.6512016025669958,-2.2099006856664714,-2.1502305213761552,0.5179096605664034,-1.4399950530435244,-2.868971473758123,-2.9929046907967245,-2.880404351078842,-2.0156310236666584,-0.558649143695997,-1.6363011815784203,-2.599199639799764,-3.3234678369435477,-4.0633011479690815,-2.2160688408449665,-2.481655356946396,-2.4381398653178934,-1.9125885816437687
5.349391679728135,5.762179759028148,5.523877182557548,5.5758519268155595,6.697559541255896,5.072984228452492,5.234923897848476,5.830043376041978,5.0932779701579785,5.085756301227424,5.5495098627707975,5.079027151292826,5.182801808686716,4.984876858591611,5.107610700216272,5.074293391801632,5.244402394876548,5.1220759817563035,5.208502811823251,5.829315900877572,5.202254919424257,4.82444977884645,4.630508039875957,5.2274660906209,5.3810040970802095,5.279793866005943,5.108310921400547,4.747406869920457,6.408432248061751,5.083254022702586,5.446812276861749,6.209354098183028,7.460395272467976,5.5574280596293555,4.814711520714077,5.147537554392556,5.336946249103846,5.047245656360578,5.2042758374527365,5.000802363224365,6.071539241601867,5.442352208575352,5.028046566910444,5.082887367837932,5.487999877887829,4.876653721751664,5.1528652656090275,4.870377399906102,5.152935655363926,5.0094248030179,4.742432331574588,4.73852221046747,5.19038822083314,4.937607557893158,4.7827493988076215,5.366181227902347,7.618390093266269,5.6185962801811735,4.942762194332135,5.514728055520457,5.4779234773492895,7.930752388836691,4.8722366970687325,4.740966249207957,5.338945377820132,5.091451906786926,5.2185773464839125,5.1053601844549625,5.757039442757938,4.967278450317158,5.277740280654103,4.7077815558495955,5.310378426171666,4.349390094756355,4.680902149615809,5.092592274563454,5.533882118782773,6.410622959075598,5.2089772102028835,4.980083703200486,5.250477358725286,4.803070782530621,5.010076520784391,4.95653981184785,4.874811222175309,6.004267005340695,5.441861348148207,4.847493733157613,5.392641930364621,4.914510834369505,5.0397877295280695,6.3475154097453625,5.549649852232082,4.8211723335724,4.800716839906192,5.210851597747731,5.304109533882161,5.260247604966966,5.080189520531324,5.3532398593545
0.008021260374703467,0.0028981285190733544,0.37238519311885526,0.0004930323941108488,0.00021750548427307948,0.01323100656576554,0.02588999842028858,0.00030527488660167827,0.0011307165817895613,8.857263768868598e-07,0.001052478364343093,6.127210330110236e-06,0.04784011441773132,0.00029059273247995115,0.0014708769477438516,0.009664331868345307,0.001246489595995557,0.0059103187380221715,0.006047679960099597,0.03195287625787307,1.9065084990770275e-05,0.00017604690480618106,0.0029184263200321033,0.0011446786318902288,0.00028105677692860805,0.02389698965165535,6.54028547995936e-05,0.00033441180026105594,0.014513835592386885,0.0008822067566975646,0.003920506150696876,0.0036421989061791327,0.055201977005696116,0.0016789341277954942,0.007891644686307518,0.05219559434653619,0.0006263395947380904,0.0035748301848569286,0.0005144267643481531,0.0197937763297364,3.909729625276307e-05,0.0005997346734648238,0.0001535523183275509,0.004436223964138325,0.06252847658561433,0.007175861485191478,0.004145428114386286,0.0003132127533411632,0.0013285867983668246,0.0024814069612036915,0.018287831203570037,0.000660189114175235,0.0006813677964191919,0.003395911283785218,0.19457833756972276,0.0014956722164347772,0.006666456456106646,0.020832678019074978,0.0018900321931683902,0.00288550316027749,0.00039602509741223566,0.08402649145901045,0.007608245916408584,0.0017138755604070362,0.02048014418630308,0.0007407372754988932,0.002459769035460133,0.005023586549063126,0.00026421282579156094,0.0073938253671795035,0.009119652841595258,0.0037420171032107674,0.011046894889285357,0.005903361950356686,0.01071766500642448,0.0005415442085344756,0.0033477429847570154,0.01792872815043076,0.0025575185160809522,4.978288560614453e-06,0.00012111182566963967,0.040070828136056016,0.00038874822781206843,0.00010485865053253636,0.08448751451802526,0.001172583388989244,0.018524823686610944,0.008975592297944451,0.07023638153247379,0.005124050242276503,0.00013011394102773775,0.021680671045057366,0.0008306226810062367,0.01487058612755339,0.0011955988890634702,0.018155808344342415,0.0006598851834509836,0.005137820266764541,0.0009253614278136724,0.0009027930374252144
